weight = [-184.621340380697; 13.2776317518998; 73.1912118686950; -10.3070242325572; 15.4836214272869; -77.8957480275562; -65.4600737604140; -20.2270212213538; -68.6110624257276; -11.2189144587390; -41.9816369901660; 10.4937784683333; 11.8208216284006; 13.3469786172977; 2.66276959213654; 26.8564982831866; 4.32594284083930; -9.80197331890719; 7.57435423933065; 6.34749847621338; -23.4485613333556; 2.17918216427234; -7.14583676292007; 6.18053785842292; -13.6911820952752; 5.92688454835315; -13.7530938892339; -0.0551092582001799; 77.1983384563740; -22.7708081232408; -17.3583688890625; 34.4450550421322; -12.9808192645355; 4.02846645643550; -8.59483335566024; -6.39400934197762; 38.0336366410809; -21.6187972009509; -38.3993015731129; 15.4686397566147; -47.7695741723564; -25.7071633046065; 25.2500663228276; -22.2545019554318; 17.1773067261713; -45.3440384206408; 61.6606657988351; 33.2598186586075; 10.6278486363667; -6.39121767150403; -42.3395670074289; -63.9263238824082; -10.7578402788802; -27.1395515643951; -28.0868281824572; 13.8785968820254; 15.6272769008113; 38.6102717432969; 14.1877799006542; 25.0122822141654; 64.3009471331390; -34.1387591360607; -19.7800462130702; 20.8700890274491; 7.21646961178620; -37.8750411501568; 36.5308874806643; -47.3536686050704; -25.3914732364001; 45.7954397945974; 19.3194926284842; -23.1915543288347; -12.5707897567988; -31.3300774265175; -41.0393330668037; 9.29550574556676; -3.87135897744216; 57.5880121341275; -9.70933724527176; 79.4931836221577; -0.269204959559024; -9.72801521694452; -28.0551507880963; -25.3651205596768; 17.8435198080034; -0.545556604575782; -75.3443971481521; -2.68248161923989; 47.9153800131198; -89.0724151187403; -20.0306122107991; 1.12659612073419; -28.5198128011657; -61.7639536255048; -7.22644105906177; 19.6435919893683; -17.8426763953015; -21.0070583947894; -93.3645940639206; 55.2194552487013; 20.9519539672631; -82.0237173795289; 86.1669277869602; -16.2124877585081; 16.3001142831866; -13.4384305745819; -38.4331827283917; -17.2066593895470; 4.22574638177195; -5.33851538000465; -15.1800989047095; 32.1497106812597; -47.4063492146338; 28.8326845615702; -13.3083561799544; -14.8584790905859; 18.0478011297824; 15.2470169954584; 21.4073363369589; -22.8777390675360; 25.6848134930482; 28.9196462375172; -101.568813896088; 24.8556539740985; 35.3798849639710; 66.4829965527151; -21.2090563551760; -78.8015186322590; -27.7690715053970; -48.4623254538176; 37.0752405720262; -70.7179494167930; 67.1527811990180; -9.33506165597533; 43.1621162756819; 30.4494847590360; -1.52567372415273; 26.3324977442865; -49.0373447825631; -4.63409683541299; 12.1931360728752; -23.5084367951091; 8.49119388572448; -30.5064511270129; 38.4177555926942; 2.98132949726730; 11.5346670821562; -30.7787195907491; -104.425183642709; -43.3836820736746; -40.9049218777228; -18.1712807491649; -8.91446528178513; 90.5899641031789; 29.7166062561986; 13.2263031379084; 2.90150020588040; -6.64332637037475; -69.1903475878176; -15.1141764399540; -6.66638442369182; -30.0732614725606; -19.0572321691888; 40.9485831736290; -25.8946537810151; 0.520770233055011; 47.2429045113579; 18.4319020861126; 0.232730268328257; 71.2492957484719; -48.2517156269709; -41.2535983396177; 72.1557887311049; 25.1434607035528; 106.269732682526; -51.0416667546170; 17.1215766211429; 97.2129387222606; 52.3655214165996; 37.2889621907097; -7.48384164945217; 10.1078747061492; -72.0914286008589; 17.8322406759084; -22.9831980964529; 11.5528935608260; -39.0741170220523; -30.8330262917097; 78.9323884638638; -10.2753394777621; -29.1920415682032; 62.2456955142048; -111.223422994778; -93.8360459085788; 25.0274665769346; 23.3097046109297; -19.1062401283391; 54.6562656886786; 8.19451481686106; 44.1729155648569; -447.878402406123];