weights = [-80.5081985038057; -18.7141349339318; 42.1153022696926; -5.95544279667121; 13.3370247829674; -16.2016329583467; -54.2391853523787; -35.5823532938866; -35.2552227074927; 21.3785303430009; 22.6770054606677; 9.35482877540676; 6.34591722831549; 6.14548338451605; 11.4869188177374; 0.382192854628022; -9.38039808536584; -4.77146156739500; -2.01739815164147; 9.59783310587564; -11.1776084678184; -3.39580855003373; -2.86141636818434; -7.13053770131683; 9.10414291812005; 9.45252300300443; -6.22364213264453; -1.79379743912196; 43.3842125608820; -8.11892711870256; -4.34004914826925; 28.0919740873984; -9.79481042503664; 3.48917480697240; -1.22398449141327; -1.89078510236608; 20.8659498006627; -13.4952108324734; -24.6713253299174; 6.45363545493283; 0.0127465484219728; 13.4476670291654; 3.54225149573768; -9.25736474343280; -11.3440795027071; 14.4284499098981; -32.1271829686317; -28.3566113350789; 5.26358794753197; -20.5608608150431; -17.1032731725240; 20.2485739329151; -41.6470553387913; 4.41129886260276; 6.41257607566696; 11.6599889698231; 0.394335099911053; -9.99084926921974; -9.75589395819088; 8.37994231288677; -20.2076523098207; 37.5023573860470; 21.0402611098436; -8.45429165410840; 12.0518337371595; 20.0985008220698; -18.7865324165564; -20.5900876657492; -31.6860364177722; 15.0814402402640; -10.2390540711008; 2.47108317466969; -16.7707978342199; -1.26634142654319; -16.1214074202368; 40.6768498749004; -7.57640385171475; 18.6663228734044; -12.7048054141325; -36.9352415080574; -4.94144378673615; 6.37205365595848; -17.9928464937813; 2.61680164866496; 9.10777727815084; -13.8689299700342; -2.47263657071573; -30.2512724843312; -17.6697496645123; -36.0644841830112; 37.2197325015766; 19.9054253110625; 1.56296015659587; 53.8860450857714; 15.2142554078233; 8.38156836595635; -4.23575173862999; -10.9242156904672; -11.1218957513347; -66.3192665832246; 0.896650816099290; -52.1882024020517; -30.3595867393670; -19.9214626405965; -5.31446297042517; -0.139726706381663; 11.4126580547218; -39.7459154085683; 10.2522624785243; -16.3434471653173; 20.8839028689272; -25.1982214222115; -13.6453089171003; -19.5738371890517; 18.4399182069068; 10.3839476394882; 5.03710352857033; 24.6104367763103; -4.14043150875893; 22.4145997236503; 33.8321586459281; 32.4054161602323; -16.9162074509479; -30.6903045939907; 14.6410836205594; -38.9429403893152; -32.4169418819701; 30.1853309550842; 21.2242646285573; -20.9926903899697; -10.5920196555344; 11.4492171005702; -16.9008680166987; -8.39115956773064; -12.3575683343203; -17.0835704411247; -41.4158723681715; -2.26972533423740; -1.63209767508464; -32.0666884026496; 6.49229486029629; -6.52561722491220; -1.74120201046313; -37.9556592716050; -2.37799972036178; 44.2137314118871; 12.4732508288076; 6.49389850769743; -39.8861883985389; -16.8867556763194; -7.47256474671082; 0.893015190267244; -33.4871112323092; -47.6130935379447; -30.4636390534760; 6.09529190878593; 3.26806254214502; 13.4947931313017; -48.7394204334987; 18.2624657563687; -12.4947893423616; -30.1192114653186; 35.0595737286216; 20.9307657787724; -7.96809255226784; 1.76281141368382; -6.02533963113920; -8.00400503885644; -15.1907664217180; -44.5329059608329; 36.5051735673674; -22.2601713261268; -33.7284641822721; 36.0696629590404; 0.658991301758745; 27.2266796180511; -13.8461566328259; -6.14382705234783; -14.2272170348540; 14.7860754583843; 27.7777827917297; -17.8412254515738; -7.60681515871918; -33.0883136652279; -55.3308379034226; 32.8235392130534; -29.5072977979931; -20.4737512335894; -12.8169305009709; -36.0510309989698; -26.6700363846587; 30.6771576683644; 26.8265829556013; 20.6129330162622; 8.51561990925106; -21.0974773322883; -29.2447284330493; 9.04711806255374; 12.4756756506047; -19.6969866685020; -141.140456629284]